digraph Tree {
node [shape=box, style="filled, rounded", color="black", fontname="helvetica"] ;
edge [fontname="helvetica"] ;
0 [label="time <= 31.4\nsquared_error = 0.2\nsamples = 45\nvalue = 0.6", fillcolor="#f0b78e"] ;
1 [label="srcport <= 45622.0\nsquared_error = 0.1\nsamples = 25\nvalue = 0.9", fillcolor="#e78a47"] ;
0 -> 1 [labeldistance=2.5, labelangle=45, headlabel="True"] ;
2 [label="squared_error = 0.0\nsamples = 2\nvalue = 0.0", fillcolor="#ffffff"] ;
1 -> 2 ;
3 [label="squared_error = 0.0\nsamples = 23\nvalue = 1.0", fillcolor="#e58139"] ;
1 -> 3 ;
4 [label="squared_error = 0.0\nsamples = 20\nvalue = 0.0", fillcolor="#ffffff"] ;
0 -> 4 [labeldistance=2.5, labelangle=-45, headlabel="False"] ;
}